5446 -1 45 45 45 45 45 45 45
5447 -1 -1 45 45 45 45 45 45
5448 -1 45 45 45 45 45 45 45
5450 -1 45 45 45 45 45 45 45
5451 -1 45 45 45 45 45 45 45
5452 -1 45 45 45 45 45 45 45
5453 -1 45 45 45 45 45 45 45
5454 -1 45 45 45 45 45 45 45
5455 -1 45 45 45 45 45 45 45
5456 -1 45 45 45 45 45 45 45
5457 -1 45 45 45 45 45 45 45
5458 -1 45 45 45 45 45 45 45
5459 -1 45 45 45 45 45 45 45
5460 -1 45 45 45 45 45 45 45
5461 -1 45 45 45 45 45 45 45
5462 -1 45 45 45 45 45 45 45
5463 -1 45 45 45 45 45 45 45
5464 -1 45 45 45 45 45 45 45
5465 -1 45 45 45 45 45 45 45
5466 -1 45 45 45 45 45 45 45
5467 -1 95 95 95 95 95 95 95
5468 -1 95 95 95 95 95 95 95
5469 -1 95 95 95 95 95 95 95
5470 -1 95 95 95 95 95 95 95
5472 -1 75 75 100 75 75 75 75
5473 -1 75 75 100 75 75 75 75
5474 -1 75 75 100 75 75 75 75
5475 -1 75 75 100 75 75 75 75
5476 -1 75 75 100 75 75 75 75
5477 -1 25 25 100 25 25 25 25
5478 -1 25 25 100 25 25 25 25
5479 -1 125 125 100 125 125 125 125
5480 -1 125 125 100 125 125 125 125
5481 -1 -1 300 300 300 300 300 300
5481 -1 150 300 300 300 300 300 300
5482 -1 150 300 300 300 300 300 300
5483 -1 125 300 100 300 300 125 125
5484 -1 125 300 100 300 300 125 125
5485 -1 12 300 100 300 300 18 100
5486 -1 12 300 100 300 300 18 100
5487 -1 65 300 200 300 300 101 200
5488 -1 65 300 200 300 300 101 200
5489 -1 65 300 200 300 300 101 200
5490 -1 65 300 200 300 300 101 200
5491 -1 24 300 100 300 300 51 100
5492 -1 24 300 100 300 300 51 100
5493 -1 105 300 200 300 300 125 200
5494 -1 105 300 200 300 300 125 200
5495 -1 53 300 300 300 300 62 300
5496 -1 53 300 300 300 300 62 300
5497 -1 127 300 100 300 300 88 100
5498 -1 127 300 100 300 300 88 100
5499 -1 78 300 200 300 300 37 200
5500 -1 78 300 200 300 300 37 200
5501 -1 105 300 300 300 300 41 300
5502 -1 105 300 300 300 300 41 300
5503 -1 70 300 100 300 300 31 100
5504 -1 70 300 100 300 300 31 100
5505 -1 45 300 100 300 300 200 100
5507 -1 105 300 100 300 300 200 100
5508 -1 105 300 100 300 300 200 100
5509 -1 88 300 200 300 300 300 100
5511 -1 141 300 300 300 300 250 100
5513 -1 61 300 300 300 300 175 100
5514 -1 61 300 300 300 300 175 100
5516 -1 130 300 100 300 300 200 100
5518 -1 128 300 100 300 300 200 100
5520 -1 101 300 100 300 300 200 100
5521 -1 101 300 100 300 300 200 100
5522 -1 58 300 200 300 300 300 100
5523 -1 58 300 200 300 300 300 100
5525 -1 47 300 300 300 300 150 100
5529 -1 0 -1 88 88 -1 88 -1
5530 -1 0 -1 88 88 -1 88 -1
5531 -1 0 -1 88 88 -1 88 -1
5534 -1 200 -1 200 200 -1 200 -1
5536 -1 100 -1 100 100 -1 100 -1
5537 -1 100 -1 100 100 -1 100 -1
5538 -1 200 -1 200 200 -1 200 -1
5539 -1 200 -1 200 200 -1 200 -1
5540 -1 300 -1 300 300 -1 300 -1
5541 -1 300 -1 300 300 -1 300 -1
5542 -1 150 -1 150 150 -1 150 -1
5543 -1 150 -1 150 150 -1 150 -1
5544 -1 250 -1 250 250 -1 250 -1
5545 -1 250 -1 250 250 -1 250 -1
5546 -1 350 -1 350 350 -1 350 -1
5547 -1 350 -1 350 350 -1 350 -1
5548 -1 100 -1 100 100 -1 100 -1
5549 -1 100 -1 100 100 -1 100 -1
5550 -1 200 -1 200 200 -1 200 -1
5551 -1 200 -1 200 200 -1 200 -1
5552 -1 200 -1 200 200 -1 200 -1
5553 -1 100 -1 100 100 -1 100 -1
5554 -1 100 -1 100 100 -1 100 -1
5555 -1 200 -1 200 200 -1 200 -1
5556 -1 200 -1 200 200 -1 200 -1
5557 -1 300 -1 300 300 -1 300 -1
5558 -1 300 -1 300 300 -1 300 -1
5559 -1 150 -1 150 150 -1 150 -1
5560 -1 150 -1 150 150 -1 150 -1
5561 -1 250 -1 250 250 -1 250 -1
5562 -1 250 -1 250 250 -1 250 -1
5563 -1 350 -1 350 350 -1 350 -1
5564 -1 350 -1 350 350 -1 350 -1
5565 -1 100 -1 100 100 -1 100 -1
5566 -1 100 -1 100 100 -1 100 -1
5567 -1 200 -1 200 200 -1 200 -1
5568 -1 200 -1 200 200 -1 200 -1
5569 -1 300 -1 300 300 -1 300 -1
5570 -1 300 -1 300 300 -1 300 -1
5571 -1 150 -1 150 150 -1 150 -1
5572 -1 150 -1 150 150 -1 150 -1
5573 -1 250 -1 250 250 -1 250 -1
5574 -1 250 -1 250 250 -1 250 -1
5575 -1 350 -1 350 350 -1 350 -1
5576 -1 350 -1 350 350 -1 350 -1
5577 -1 100 -1 100 100 -1 100 -1
5578 -1 100 -1 100 100 -1 100 -1
5579 -1 200 -1 200 200 -1 200 -1
5580 -1 200 -1 200 200 -1 200 -1
5581 -1 300 -1 300 300 -1 300 -1
5582 -1 300 -1 300 300 -1 300 -1
5583 -1 150 -1 150 150 -1 150 -1
5584 -1 150 -1 150 150 -1 150 -1
5585 -1 150 -1 150 150 -1 150 -1
5586 -1 -1 -1 -1 -1 -1 -1 -1
5588 -1 10 -1 10 40 5 10 -1
5589 -1 10 5 10 80 5 10 5
5590 -1 -1 6 -1 6 6 -1 6
5591 -1 -1 6 -1 6 6 -1 6
5592 -1 -1 50 -1 50 50 -1 50
5593 -1 -1 50 -1 50 50 -1 50
5594 -1 -1 100 -1 100 100 -1 100
5595 -1 -1 100 -1 100 100 -1 100
5596 -1 -1 200 -1 200 200 -1 200
5597 -1 -1 200 -1 200 200 -1 200
5598 -1 -1 300 -1 300 300 -1 300
5599 -1 -1 300 -1 300 300 -1 300
5600 -1 -1 400 -1 400 400 -1 400
5601 -1 -1 400 -1 400 400 -1 400
5602 -1 -1 500 -1 500 500 -1 500
5603 -1 -1 500 -1 500 500 -1 500
5604 -1 -1 600 -1 600 600 -1 600
5607 -1 -1 500 -1 500 500 -1 500
5608 -1 -1 500 -1 500 500 -1 500
5609 -1 -1 600 -1 600 600 -1 600
5610 -1 -1 700 -1 700 700 -1 700
5611 -1 -1 800 -1 800 800 -1 700
5612 -1 -1 800 -1 800 800 -1 700
5613 -1 -1 800 -1 800 800 -1 700
5614 -1 -1 800 -1 800 800 -1 675
5614 -1 -1 800 -1 800 800 -1 700
5615 -1 -1 850 -1 800 850 -1 750
5616 -1 -1 850 -1 800 850 -1 750
5617 -1 -1 900 -1 800 900 -1 720
5618 -1 -1 900 -1 800 900 -1 720
5619 -1 -1 900 -1 800 850 -1 700
5620 -1 -1 900 -1 800 850 -1 700
5621 -1 -1 900 -1 800 850 -1 650
5622 -1 -1 900 -1 800 850 -1 650
5623 -1 -1 400 -1 400 400 -1 400
5624 -1 -1 400 -1 400 400 -1 400
5625 -1 -1 500 -1 500 500 -1 500
5626 -1 -1 500 -1 500 500 -1 500
5627 -1 -1 600 -1 600 600 -1 600
5628 -1 -1 600 -1 600 600 -1 600
5629 -1 -1 700 -1 700 700 -1 640
5630 -1 -1 700 -1 700 700 -1 640
5632 -1 -1 800 -1 800 800 -1 200
5633 -1 -1 900 -1 300 850 -1 300
5634 -1 -1 900 -1 300 850 -1 300
5635 -1 -1 400 -1 400 400 -1 400
5636 -1 -1 400 -1 400 400 -1 400
5637 -1 -1 500 -1 500 500 -1 500
5638 -1 -1 500 -1 500 500 -1 500
5639 -1 -1 600 -1 600 600 -1 600
5640 -1 -1 600 -1 600 600 -1 600
5641 -1 -1 700 -1 700 700 -1 640
5642 -1 -1 700 -1 700 700 -1 640
5643 -1 -1 800 -1 800 800 -1 200
5644 -1 -1 800 -1 800 800 -1 200
5645 -1 -1 900 -1 300 850 -1 300
5646 -1 -1 900 -1 300 850 -1 300
5647 -1 -1 400 -1 400 400 -1 400
5648 -1 -1 400 -1 400 400 -1 400
5649 -1 -1 500 -1 500 500 -1 500
5650 -1 -1 500 -1 500 500 -1 500
5651 -1 -1 600 -1 600 600 -1 600
5652 -1 -1 600 -1 600 600 -1 600
5653 -1 -1 700 -1 700 700 -1 640
5655 -1 -1 800 -1 800 800 -1 200
5656 -1 -1 800 -1 800 800 -1 200
5657 -1 -1 900 -1 300 850 -1 300
5659 -1 -1 400 -1 400 400 -1 400
5661 -1 10 10 10 10 -1 -1 -1
5663 -1 10 10 10 10 -1 -1 -1
5665 -1 10 10 10 10 -1 -1 -1
5667 -1 10 10 10 10 -1 -1 -1
5670 -1 475 383 448 392 -1 -1 -1
5670 -1 487 386 460 392 -1 -1 -1
5673 -1 10 10 10 10 -1 -1 -1
5676 -1 400 400 400 100 -1 -1 -1
5677 -1 400 400 400 100 -1 -1 -1
5678 -1 500 500 500 200 -1 -1 -1
5679 -1 500 500 500 200 -1 -1 -1
5680 -1 600 600 600 300 -1 -1 -1
5681 -1 600 600 600 300 -1 -1 -1
5682 -1 650 650 650 400 -1 -1 -1
5683 -1 650 650 650 400 -1 -1 -1
5684 -1 700 750 675 350 -1 -1 -1
5685 -1 700 750 675 350 -1 -1 -1
5686 -1 725 800 685 150 -1 -1 -1
5687 -1 725 800 685 150 -1 -1 -1
5688 -1 400 400 400 100 -1 -1 -1
5689 -1 400 400 400 100 -1 -1 -1
5690 -1 500 500 500 200 -1 -1 -1
5691 -1 500 500 500 200 -1 -1 -1
5692 -1 600 600 600 300 -1 -1 -1
5693 -1 600 600 600 300 -1 -1 -1
5694 -1 650 650 650 400 -1 -1 -1
5695 -1 650 650 650 400 -1 -1 -1
5696 -1 700 750 675 350 -1 -1 -1
5697 -1 700 750 675 350 -1 -1 -1
5698 -1 725 800 685 150 -1 -1 -1
5699 -1 725 800 685 150 -1 -1 -1
5700 -1 600 600 600 300 -1 -1 -1
5701 -1 600 600 600 300 -1 -1 -1
5702 -1 700 750 675 350 -1 -1 -1
5703 -1 700 750 675 350 -1 -1 -1
5704 -1 725 800 685 150 -1 -1 -1
5705 -1 725 800 685 150 -1 -1 -1
5706 -1 600 600 600 300 -1 -1 -1
5707 -1 600 600 600 300 -1 -1 -1
5708 -1 700 750 675 350 -1 -1 -1
5709 -1 700 750 675 350 -1 -1 -1
5715 -1 10 10 10 10 -1 -1 -1
5716 -1 10 10 10 10 -1 -1 -1
5717 -1 10 10 10 10 -1 -1 -1
5718 -1 10 10 10 10 -1 -1 -1
5719 -1 10 10 10 10 -1 -1 -1
5721 -1 10 -1 -1 -1 10 10 -1
5723 -1 10 -1 -1 -1 10 10 -1
5724 -1 50 -1 -1 -1 50 50 -1
5725 -1 50 -1 -1 -1 50 50 -1
5726 -1 175 -1 -1 -1 75 75 -1
5727 -1 175 -1 -1 -1 75 75 -1
5728 -1 200 -1 -1 -1 200 200 -1
5729 -1 100 -1 -1 -1 100 100 -1
5730 -1 100 -1 -1 -1 100 100 -1
5731 -1 250 -1 -1 -1 250 125 -1
5732 -1 300 -1 -1 -1 300 75 -1
5733 -1 300 -1 -1 -1 300 75 -1
5734 -1 100 -1 -1 -1 100 150 -1
5735 -1 100 -1 -1 -1 100 150 -1
5736 -1 100 10 -1 -1 100 150 -1
5737 -1 100 10 -1 -1 100 150 -1
5738 -1 100 10 -1 -1 100 150 -1
5739 -1 100 10 -1 -1 100 150 -1
5740 -1 100 10 -1 -1 100 150 -1
5741 -1 100 10 -1 -1 100 150 -1
5742 -1 200 10 -1 -1 200 250 -1
5743 -1 200 10 -1 -1 200 250 -1
5744 -1 300 10 -1 -1 300 60 -1
5745 -1 300 10 -1 -1 300 60 -1
5746 -1 100 10 -1 -1 100 160 -1
5747 -1 100 10 -1 -1 100 160 -1
5748 -1 200 10 -1 -1 200 254 -1
5749 -1 200 10 -1 -1 200 254 -1
5750 -1 300 10 -1 -1 300 58 -1
5751 -1 300 10 -1 -1 300 58 -1
5752 -1 100 10 -1 -1 100 152 -1
5753 -1 100 10 -1 -1 100 152 -1
5754 -1 200 10 -1 -1 200 241 -1
5755 -1 200 10 -1 -1 200 241 -1
5756 -1 300 10 -1 -1 300 40 -1
5757 -1 300 10 -1 -1 300 40 -1
5758 -1 100 10 -1 -1 100 129 -1
5759 -1 100 10 -1 -1 100 129 -1
5760 -1 200 10 -1 -1 200 213 -1
5761 -1 200 10 -1 -1 200 213 -1
5762 -1 300 10 -1 -1 300 297 -1
5763 -1 300 10 -1 -1 300 297 -1
5764 -1 100 10 -1 -1 100 91 -1
5765 -1 100 10 -1 -1 100 91 -1
5766 -1 200 10 -1 -1 200 170 -1
5767 -1 200 10 -1 -1 200 170 -1
5768 -1 300 10 -1 -1 300 249 -1
5769 -1 300 10 -1 -1 300 249 -1
5770 -1 100 10 -1 -1 100 38 -1
5771 -1 100 10 -1 -1 100 38 -1
5772 -1 200 10 -1 -1 200 113 -1
5773 -1 200 10 -1 -1 200 113 -1
5774 -1 300 10 -1 -1 300 188 -1
5775 -1 300 10 -1 -1 300 188 -1
5776 -1 100 10 -1 -1 100 263 -1
5777 -1 100 10 -1 -1 100 263 -1
5778 -1 200 10 -1 -1 200 44 -1
5779 -1 200 10 -1 -1 200 44 -1
5780 -1 300 10 -1 -1 300 115 -1
5781 -1 300 10 -1 -1 300 115 -1
5782 -1 100 10 -1 -1 100 186 -1
5783 -1 100 10 -1 -1 100 186 -1
5785 -1 100 10 -1 -1 100 150 -1
5786 -1 100 10 -1 -1 100 150 -1
5787 -1 150 10 -1 -1 150 260 -1
5788 -1 150 10 -1 -1 150 260 -1
5789 -1 200 10 -1 -1 200 80 -1
5790 -1 200 10 -1 -1 200 80 -1
5791 -1 250 10 -1 -1 250 190 -1
5792 -1 250 10 -1 -1 250 190 -1
5793 -1 300 10 -1 -1 300 300 -1
5794 -1 300 10 -1 -1 300 300 -1
5795 -1 50 10 -1 -1 50 120 -1
5796 -1 50 10 -1 -1 50 120 -1
5797 -1 100 10 -1 -1 100 230 -1
5798 -1 100 10 -1 -1 100 230 -1
5800 -1 150 10 -1 -1 150 5 -1
5801 -1 150 10 -1 -1 150 5 -1
5802 -1 200 10 -1 -1 200 115 -1
5803 -1 200 10 -1 -1 200 115 -1
5804 -1 250 10 -1 -1 250 225 -1
5805 -1 250 10 -1 -1 250 225 -1
5806 -1 300 10 -1 -1 300 45 -1
5807 -1 300 10 -1 -1 300 45 -1
5808 -1 50 10 -1 -1 50 155 -1
5809 -1 50 10 -1 -1 50 155 -1
5810 -1 100 10 -1 -1 100 265 -1
5811 -1 100 10 -1 -1 100 265 -1
5812 -1 150 10 -1 -1 150 85 -1
5813 -1 150 10 -1 -1 150 85 -1
5814 -1 200 10 -1 -1 200 187 -1
5815 -1 200 10 -1 -1 200 187 -1
5816 -1 250 10 -1 -1 250 289 -1
5817 -1 250 10 -1 -1 250 289 -1
5820 -1 10 10 10 10 -1 -1 -1
5821 -1 10 10 10 10 -1 -1 -1
5823 -1 250 450 350 450 -1 -1 -1
5825 -1 250 450 350 450 -1 -1 -1
5826 -1 250 450 350 450 -1 -1 -1
5827 -1 250 450 350 450 -1 -1 -1
5828 -1 250 450 350 450 -1 -1 -1
5829 -1 350 550 450 550 -1 -1 -1
5830 -1 350 550 450 550 -1 -1 -1
5831 -1 450 650 550 650 -1 -1 -1
5832 -1 450 650 550 650 -1 -1 -1
5833 -1 550 750 650 750 -1 -1 -1
5834 -1 550 750 650 750 -1 -1 -1
5835 -1 200 400 300 400 -1 -1 -1
5836 -1 200 400 300 400 -1 -1 -1
5837 -1 300 500 400 500 -1 -1 -1
5838 -1 300 500 400 500 -1 -1 -1
5839 -1 400 600 500 600 -1 -1 -1
5840 -1 400 600 500 600 -1 -1 -1
5841 -1 500 700 600 700 -1 -1 -1
5842 -1 500 700 600 700 -1 -1 -1
5843 -1 250 450 350 450 -1 -1 -1
5844 -1 250 450 350 450 -1 -1 -1
5845 -1 350 550 450 550 -1 -1 -1
5846 -1 350 550 450 550 -1 -1 -1
5847 -1 450 650 550 650 -1 -1 -1
5848 -1 450 650 550 650 -1 -1 -1
5849 -1 550 750 650 750 -1 -1 -1
5850 -1 550 750 650 750 -1 -1 -1
5851 -1 200 400 300 400 -1 -1 -1
5852 -1 200 400 300 400 -1 -1 -1
5858 -1 250 450 350 450 -1 -1 -1
5860 -1 250 450 350 450 -1 -1 -1
5861 -1 250 450 350 450 -1 -1 -1
5862 -1 350 550 450 550 -1 -1 -1
5863 -1 350 550 450 550 -1 -1 -1
5864 -1 450 650 550 650 -1 -1 -1
5865 -1 450 650 550 650 -1 -1 -1
5866 -1 550 750 650 750 -1 -1 -1
5867 -1 550 750 650 750 -1 -1 -1
5868 -1 200 400 300 400 -1 -1 -1
5869 -1 200 400 300 400 -1 -1 -1
5870 -1 300 500 400 500 -1 -1 -1
5871 -1 300 500 400 500 -1 -1 -1
5872 -1 400 600 500 600 -1 -1 -1
5873 -1 400 600 500 600 -1 -1 -1
5874 -1 500 700 600 700 -1 -1 -1
5875 -1 500 700 600 700 -1 -1 -1
5876 -1 250 450 350 450 -1 -1 -1
5877 -1 250 450 350 450 -1 -1 -1
5878 -1 350 550 450 550 -1 -1 -1
5879 -1 350 550 450 550 -1 -1 -1
5880 -1 450 650 550 650 -1 -1 -1
5881 -1 450 650 550 650 -1 -1 -1
5882 -1 550 750 650 750 -1 -1 -1
5883 -1 550 750 650 750 -1 -1 -1
5884 -1 200 400 300 400 -1 -1 -1
5885 -1 200 400 300 400 -1 -1 -1
5886 -1 300 500 400 500 -1 -1 -1
5887 -1 300 500 400 500 -1 -1 -1
5888 -1 400 600 500 600 -1 -1 -1
5889 -1 400 600 500 600 -1 -1 -1
5890 -1 500 700 600 700 -1 -1 -1
5891 -1 500 700 600 700 -1 -1 -1
5892 -1 600 800 700 800 -1 -1 -1
5893 -1 600 800 700 800 -1 -1 -1
5894 -1 600 800 700 800 -1 -1 -1
5895 -1 600 800 700 800 -1 -1 -1
5896 -1 600 800 700 800 -1 -1 -1
5897 -1 700 900 800 900 -1 -1 -1